<?xml version="1.0"?>
<opencv_storage>
<stage4>
  <maxWeakCount>10</maxWeakCount>
  <stageThreshold>-1.5153137445449829e+00</stageThreshold>
  <weakClassifiers>
    <_>
      <internalNodes>
        0 -1 105082 -3.1021651811897755e-03</internalNodes>
      <leafValues>
        4.4444444775581360e-01 -7.7737879753112793e-01</leafValues></_>
    <_>
      <internalNodes>
        0 -1 37870 -3.4146033227443695e-02</internalNodes>
      <leafValues>
        -8.4623420238494873e-01 -5.7688258588314056e-02</leafValues></_>
    <_>
      <internalNodes>
        0 -1 13117 2.5604266673326492e-02</internalNodes>
      <leafValues>
        8.1050738692283630e-02 -8.0106824636459351e-01</leafValues></_>
    <_>
      <internalNodes>
        0 -1 154923 -2.0805370062589645e-02</internalNodes>
      <leafValues>
        -7.9118329286575317e-01 9.8236069083213806e-02</leafValues></_>
    <_>
      <internalNodes>
        0 -1 148503 2.4180963635444641e-02</internalNodes>
      <leafValues>
        1.7184624075889587e-01 -7.5153732299804688e-01</leafValues></_>
    <_>
      <internalNodes>
        0 -1 105079 -1.9042782951146364e-03</internalNodes>
      <leafValues>
        7.4424892663955688e-01 -1.6546811163425446e-01</leafValues></_>
    <_>
      <internalNodes>
        0 -1 145224 7.2985095903277397e-03</internalNodes>
      <leafValues>
        1.7503829300403595e-01 -6.1061674356460571e-01</leafValues></_>
    <_>
      <internalNodes>
        0 -1 12659 -1.6759306192398071e-02</internalNodes>
      <leafValues>
        -7.5176978111267090e-01 1.1828260123729706e-01</leafValues></_>
    <_>
      <internalNodes>
        0 -1 11973 6.5697636455297470e-03</internalNodes>
      <leafValues>
        2.4253651499748230e-01 -4.9201491475105286e-01</leafValues></_>
    <_>
      <internalNodes>
        0 -1 25969 3.0670398846268654e-03</internalNodes>
      <leafValues>
        1.7243194580078125e-01 -4.7573328018188477e-01</leafValues></_></weakClassifiers></stage4>
</opencv_storage>
